{
    "weights": [
        [
            [
                0.732,
                0.747,
                -0.166,
                0.692,
                -0.175,
                -0.947,
                -0.257,
                -0.429,
                0.824,
                0.344
            ],
            [
                0.995,
                0.391,
                0.393,
                0.469,
                0.361,
                0.825,
                -0.593,
                0.595,
                -0.054,
                -0.834
            ],
            [
                -0.327,
                0.695,
                0.519,
                0.221,
                0.008,
                0.373,
                0.05,
                0.937,
                -0.183,
                -0.697
            ],
            [
                -0.502,
                0.683,
                -0.088,
                0.196,
                0.197,
                0.935,
                0.479,
                0.766,
                -0.413,
                -0.31
            ],
            [
                -0.496,
                0.459,
                -0.916,
                -0.038,
                -0.501,
                0.625,
                0.852,
                -0.96,
                0.557,
                -0.297
            ],
            [
                -0.725,
                -0.907,
                0.146,
                -0.096,
                0.805,
                0.489,
                0.918,
                0.061,
                0.307,
                -0.641
            ],
            [
                -0.85,
                0.911,
                -0.578,
                0.508,
                -0.256,
                -0.968,
                0.305,
                0.959,
                0.139,
                -0.821
            ],
            [
                0.965,
                0.521,
                -0.011,
                0.793,
                0.475,
                0.71,
                -0.877,
                -0.308,
                0.481,
                -0.204
            ],
            [
                0.652,
                -0.898,
                0.728,
                -0.635,
                0.655,
                0.097,
                0.005,
                -0.886,
                -0.225,
                -0.988
            ],
            [
                0.102,
                0.009,
                -0.834,
                0.692,
                0.662,
                0.833,
                -0.876,
                -0.735,
                -0.733,
                0.194
            ]
        ],
        [
            [
                0.595,
                -0.89,
                -0.933,
                0.678,
                0.237,
                -0.883,
                0.653,
                -0.283,
                -0.717,
                0.289
            ],
            [
                -0.606,
                0.697,
                0.751,
                -0.206,
                0.764,
                -0.325,
                0.733,
                0.871,
                -0.398,
                -0.693
            ],
            [
                -0.0,
                0.61,
                -0.173,
                0.61,
                -0.171,
                -0.768,
                0.829,
                0.758,
                -0.01,
                -0.518
            ],
            [
                -0.348,
                0.086,
                -0.083,
                0.122,
                0.012,
                -0.738,
                -0.562,
                0.373,
                0.103,
                -0.194
            ],
            [
                0.157,
                0.803,
                0.643,
                -0.951,
                -0.232,
                -0.591,
                -0.343,
                0.589,
                0.02,
                0.873
            ],
            [
                0.872,
                -0.926,
                -0.115,
                -0.034,
                0.659,
                -0.808,
                -0.652,
                -0.531,
                -0.92,
                -0.196
            ],
            [
                0.032,
                0.242,
                0.388,
                0.149,
                0.421,
                -0.197,
                0.658,
                -0.315,
                -0.932,
                0.459
            ],
            [
                0.814,
                0.454,
                0.744,
                -0.183,
                0.236,
                0.856,
                -0.442,
                0.565,
                -0.409,
                -0.336
            ],
            [
                0.5,
                -0.959,
                -0.701,
                0.62,
                -0.852,
                0.877,
                0.813,
                0.629,
                -0.461,
                0.854
            ],
            [
                -0.682,
                -0.59,
                0.477,
                -0.497,
                -0.434,
                0.139,
                -0.406,
                0.366,
                0.769,
                0.631
            ]
        ]
    ],
    "biases": [
        [
            0.735,
            0.352,
            -0.957,
            0.793,
            -0.01,
            -0.826,
            -0.159,
            -0.752,
            -0.109,
            -0.295
        ],
        [
            -0.865,
            -0.972,
            0.597,
            -0.415,
            -0.63,
            -0.354,
            -0.363,
            -0.298,
            -0.747,
            0.342
        ]
    ]
}