{
    "weights": [
        [
            [
                0.016,
                0.938,
                0.876,
                0.492,
                0.492,
                -0.351,
                -0.012,
                0.952,
                -0.324,
                -0.827
            ],
            [
                -0.411,
                0.995,
                0.319,
                -0.148,
                -0.925,
                -0.887,
                -0.059,
                -0.754,
                0.156,
                -0.827
            ],
            [
                0.183,
                0.247,
                -0.995,
                0.032,
                0.012,
                -0.856,
                -0.294,
                0.402,
                0.435,
                -0.321
            ],
            [
                0.191,
                -0.868,
                -0.784,
                -0.083,
                -0.295,
                -0.839,
                0.696,
                -0.202,
                0.346,
                0.414
            ],
            [
                0.604,
                0.274,
                0.142,
                0.464,
                -0.183,
                0.964,
                0.062,
                0.166,
                0.485,
                -0.174
            ],
            [
                0.125,
                0.41,
                0.982,
                0.944,
                0.078,
                0.493,
                -0.342,
                -0.968,
                0.339,
                -0.515
            ],
            [
                0.743,
                0.268,
                0.563,
                -0.696,
                -0.096,
                -0.845,
                0.698,
                0.306,
                0.168,
                0.753
            ],
            [
                0.755,
                -0.247,
                -0.797,
                -0.879,
                -0.289,
                -0.487,
                0.717,
                -0.793,
                0.21,
                0.881
            ],
            [
                -0.642,
                -0.218,
                -0.805,
                0.549,
                0.836,
                -0.348,
                -0.706,
                -0.956,
                -0.133,
                0.238
            ],
            [
                0.305,
                0.685,
                -0.154,
                0.273,
                0.088,
                -0.455,
                -0.529,
                0.377,
                0.662,
                0.319
            ]
        ],
        [
            [
                -0.122,
                -0.884,
                -0.594,
                0.465,
                0.405,
                -0.599,
                0.964,
                0.401,
                -0.585,
                -0.884
            ],
            [
                0.312,
                -0.099,
                -0.507,
                0.359,
                0.92,
                0.761,
                0.722,
                0.873,
                -0.368,
                -0.332
            ],
            [
                -0.38,
                -0.056,
                -0.327,
                -0.853,
                -0.754,
                0.296,
                -0.42,
                -0.406,
                0.089,
                0.162
            ],
            [
                -0.045,
                0.571,
                -0.329,
                0.79,
                -0.668,
                -0.446,
                0.172,
                0.668,
                -0.897,
                0.687
            ],
            [
                0.611,
                -0.995,
                -0.302,
                0.938,
                -0.012,
                -0.859,
                -0.808,
                0.546,
                -0.591,
                0.527
            ],
            [
                -0.314,
                -0.336,
                0.608,
                0.787,
                -0.948,
                0.246,
                0.498,
                -0.277,
                0.454,
                0.877
            ],
            [
                -0.592,
                -0.786,
                0.436,
                -0.36,
                -0.333,
                -0.325,
                0.61,
                0.426,
                0.615,
                0.305
            ],
            [
                -0.563,
                -0.987,
                -0.188,
                -0.347,
                -0.69,
                -0.595,
                -0.092,
                -0.624,
                -0.362,
                -0.151
            ],
            [
                0.906,
                -0.255,
                -0.332,
                0.655,
                0.021,
                0.139,
                -0.324,
                0.406,
                0.684,
                -0.831
            ],
            [
                -0.817,
                -0.396,
                -0.998,
                0.843,
                0.328,
                0.075,
                0.543,
                -0.966,
                -0.433,
                -0.084
            ]
        ],
        [
            [
                -0.13,
                0.95,
                0.543,
                0.245,
                -0.065,
                0.064,
                -0.544,
                0.757,
                -0.415,
                0.194
            ],
            [
                0.51,
                -0.726,
                0.263,
                0.818,
                -0.858,
                -0.997,
                -0.525,
                0.56,
                0.124,
                -0.476
            ],
            [
                -0.547,
                0.06,
                0.176,
                0.137,
                -0.106,
                0.662,
                0.583,
                0.68,
                -0.693,
                -0.643
            ],
            [
                0.995,
                0.469,
                -0.026,
                0.564,
                0.267,
                0.053,
                -0.774,
                -0.528,
                -0.414,
                0.919
            ],
            [
                0.819,
                0.083,
                0.282,
                -0.429,
                -0.121,
                -0.098,
                0.565,
                0.712,
                0.168,
                0.997
            ],
            [
                0.697,
                0.728,
                -0.27,
                -0.936,
                0.947,
                -0.809,
                0.124,
                0.044,
                -0.47,
                0.474
            ],
            [
                0.656,
                -0.525,
                0.617,
                -0.769,
                -0.082,
                -0.855,
                0.465,
                0.269,
                -0.48,
                -0.575
            ],
            [
                0.891,
                0.289,
                -0.371,
                0.14,
                -0.523,
                -0.355,
                -0.037,
                0.956,
                -0.611,
                -0.346
            ],
            [
                -0.702,
                -0.106,
                0.417,
                0.562,
                0.81,
                0.604,
                0.105,
                -0.592,
                0.277,
                0.307
            ],
            [
                -0.779,
                0.748,
                0.055,
                0.686,
                -0.368,
                0.184,
                0.146,
                -0.125,
                0.851,
                0.51
            ]
        ],
        [
            [
                0.768,
                0.564,
                0.618,
                -0.136,
                0.284,
                0.073,
                -0.776,
                -0.781,
                -0.517,
                -0.206
            ],
            [
                0.283,
                -0.439,
                0.708,
                -0.954,
                0.11,
                0.502,
                0.287,
                0.165,
                -0.373,
                0.871
            ],
            [
                -0.857,
                0.37,
                -0.6,
                0.68,
                -0.798,
                0.776,
                -0.104,
                0.549,
                -0.315,
                -0.863
            ],
            [
                0.288,
                0.224,
                0.477,
                0.363,
                0.078,
                0.587,
                -0.228,
                -0.805,
                -0.186,
                0.275
            ],
            [
                0.251,
                -0.217,
                -0.06,
                0.841,
                0.322,
                -0.003,
                0.354,
                -0.602,
                -0.756,
                0.124
            ],
            [
                0.77,
                -0.458,
                -0.84,
                -0.701,
                -0.635,
                -0.078,
                0.259,
                0.612,
                -0.689,
                -0.986
            ],
            [
                0.07,
                0.339,
                -0.207,
                0.288,
                -0.915,
                -0.899,
                -0.159,
                0.43,
                -0.903,
                0.624
            ],
            [
                -0.108,
                0.207,
                0.265,
                0.573,
                -0.792,
                -0.237,
                0.279,
                -0.297,
                -0.722,
                0.106
            ],
            [
                0.999,
                -0.43,
                0.999,
                0.111,
                0.881,
                0.222,
                0.681,
                0.643,
                0.395,
                0.806
            ],
            [
                -0.144,
                -0.845,
                0.553,
                -0.495,
                -0.154,
                0.971,
                -0.25,
                -0.193,
                0.552,
                -0.759
            ]
        ]
    ],
    "biases": [
        [
            -0.748,
            0.425,
            -0.491,
            -0.291,
            -0.647,
            -0.861,
            -0.338,
            0.814,
            0.873,
            0.671
        ],
        [
            0.541,
            0.888,
            0.246,
            0.341,
            0.018,
            0.859,
            0.649,
            0.149,
            0.855,
            -0.554
        ],
        [
            -0.564,
            -0.722,
            0.144,
            0.285,
            -0.483,
            0.444,
            -0.169,
            -0.542,
            0.005,
            0.014
        ],
        [
            0.81,
            -0.357,
            -0.546,
            0.807,
            0.801,
            0.099,
            0.573,
            -0.369,
            -0.673,
            -0.048
        ]
    ]
}